3 128
0 -0.01783872 -0.015540248 0.014009325 0.011204071 0.0018118202 0.016808975 -0.029363336 0.019553423 0.017014652 -0.042527746 -0.038280178 -0.006315726 -0.0065853805 0.008800946 0.032596797 0.006615252 -0.021435663 -0.008885462 0.011454178 -0.036592253 -0.00024276623 -0.004977816 -0.010626878 -0.0175246 -0.0030754297 -0.0073279114 0.004002606 0.009971846 0.002143752 0.014328868 0.017707149 0.012318577 0.001600041 -0.0132641895 0.0052895937 -0.013668662 0.0016672991 0.032173883 0.020329883 0.008103285 0.03309726 -0.01367079 0.013322795 -0.03921989 -0.01684309 0.016700974 0.02999514 -0.00794032 -0.0012608041 -0.01030333 -0.0036900018 0.022955382 0.015741857 0.006471808 0.01883632 -0.008454012 -0.009008899 0.013119794 0.016154792 0.015083822 -0.014073371 -0.034322437 0.008703963 -0.011815358 0.008689159 0.032643445 0.010382145 0.011376122 -0.004494867 -0.01627089 -0.009512629 -0.014261526 -0.00776765 -0.013085599 -0.012875137 -0.016463388 0.01644255 -0.0012688059 0.009662523 0.0142932795 0.00052951183 0.026369516 -0.029025786 -0.010956274 -0.011816223 -0.021654371 0.016663559 -0.008565355 -0.027653366 -0.007183851 0.007979399 0.008632194 0.0058100647 0.04262034 -0.006915311 -0.00446797 -0.01162673 -0.00988711 -0.0031544685 0.027265549 0.0001523059 -0.00521117 -0.0189826 -0.0008399933 0.00652059 -0.010319992 0.019564938 0.0096209 -0.026076484 -0.008364746 -0.0064748134 -0.00038049233 -0.0110565 -0.0058179484 0.0074248463 0.020520547 -0.02378711 0.033274855 0.0054397155 0.007404372 0.008619347 -0.0029574032 0.0077571254 -0.027168088 0.0015207118 0.009814428 0.0032082188 -0.026656669
1 -0.015902868 -0.012226607 0.009863699 0.0066779354 0.006131908 0.015083853 -0.021753399 0.011210436 0.015354379 -0.031372663 -0.02773131 -0.0077688657 -0.008245658 0.0036980351 0.025992082 0.0006352441 -0.012004913 -0.010892678 0.00527718 -0.027548747 -0.003212563 0.0009531347 -0.0077423905 -0.014510171 -0.0071736113 -0.0006862453 0.0020519635 0.008896315 0.0018296973 0.012239085 0.014742806 0.009740848 0.0039893803 -0.009735194 0.006254191 -0.007120308 -0.0009039033 0.021326043 0.016906435 0.009732801 0.023192912 -0.009166237 0.0056621158 -0.029819272 -0.012165249 0.013477111 0.023727639 -0.0021452517 -0.0041956715 -0.010547797 -0.0056557045 0.017408302 0.0102422945 0.001613054 0.012788652 -0.004331212 -0.004122354 0.007847826 0.015253175 0.007487897 -0.0068084253 -0.025875553 0.0026995267 -0.0050875815 0.0088300295 0.026578985 0.010556387 0.0080882935 0.0019642774 -0.012293409 -0.002579159 -0.01357019 -0.006544053 -0.0072605726 -0.0073895673 -0.010236293 0.0073753893 -0.0028260231 0.0039770696 0.013544281 -0.00281728 0.017298209 -0.021375475 -0.011465101 -0.010574205 -0.017147586 0.0059949807 -0.0071526463 -0.019665634 -0.005165864 0.0005406373 0.003216507 0.002808469 0.03328382 -0.005592486 0.0016691856 -0.012164547 -0.0076070605 -0.0046636765 0.021260614 -0.0051877894 -0.008682259 -0.011946436 0.004884816 0.006823241 -0.009965488 0.014902764 0.0017824688 -0.018546557 -0.0049364916 -0.007410869 0.0047045997 -0.010077428 -0.0032815395 0.005981598 0.011627936 -0.019539598 0.023869226 0.009580897 0.0008538364 0.009060251 -0.0016591201 0.005634652 -0.015786877 -0.0013619021 0.005596688 0.0054644397 -0.018249435
2 -0.014180763 -0.0068267416 0.011194247 0.0014402887 0.0016129817 0.013618961 -0.019055163 0.011773285 0.012154725 -0.02816161 -0.024546709 -0.00863962 -0.0076269354 0.0059920247 0.022953885 0.00071046536 -0.014077655 -0.007898896 0.0070908084 -0.025670286 0.0013984782 -0.004756524 -0.010788936 -0.008256612 -0.0033374054 -0.0067259185 0.0058513205 0.007318824 0.0043776315 0.009312791 0.009355709 0.009116985 -0.002557837 -0.007886443 0.0033581336 -0.008902098 -0.00045349373 0.02148505 0.017006064 0.007466964 0.022426423 -0.005807748 0.0106081655 -0.02650491 -0.012630762 0.014170772 0.020747604 -0.007007303 0.0032927555 -0.0068468237 0.0020778175 0.012582661 0.010459076 0.002026485 0.008334854 0.0007246217 -0.0024630094 0.0031365398 0.010041225 0.007881982 -0.00985232 -0.020330178 0.0028436985 -0.009173481 0.009467002 0.022442838 0.008786034 0.0037764779 -0.002671963 -0.008059739 -0.004050621 -0.0123259 -0.00012110589 -0.00632924 -0.011105727 -0.012141517 0.012305073 -0.003946787 0.00654962 0.011217023 0.0018622257 0.018926129 -0.019282449 -0.008963036 -0.009784847 -0.008798082 0.011083894 -0.00024996317 -0.016347341 0.0011031656 0.0033345367 0.00050627236 0.0028856045 0.029598072 -0.009123894 -0.0002892672 -0.010307356 -0.007354358 -0.006924375 0.01994071 -0.004948635 -0.004339035 -0.014512935 0.0021195614 -0.00013874153 -0.001384543 0.007393972 0.00343793 -0.01479611 -0.004930465 -0.0010112349 -0.0003434751 -0.010543913 -0.0065789972 0.007956717 0.014674446 -0.01752614 0.020366684 0.0065889065 0.0031704153 0.0028208408 -0.004831928 0.001819891 -0.018488308 0.004074393 0.0007933467 0.003839012 -0.017299527
